svm_type c_svc
kernel_type rbf
gamma 0.14285714285714285
nr_class 5
total_sv 20
rho 0.018901336564369316 -0.044189336281644329 -0.20305288345592842 -0.10140090068353252 0.16983355581760406 -0.11423281235413102 -0.030941089320256715 -0.13830622848489729 -0.12819972634315491 0.00044327974319458008
label 1 2 3 4 5
nr_sv 4 4 4 4 4
SV
0.32977838014608579 0.37618125078601716 0.23003299488143936 0.20405972066006828 1:-0.586207 2:-0.406162 3:-0.296625 4:-0.93254 5:0.50152 6:-0.545946 7:-1 
0.11170933889147759 0 0 0 1:0.172414 2:-0.602241 3:-0.463588 4:-0.829365 5:0.604863 6:0.32973 7:-0.945854 
1 1 0.77509125567194415 1 1:-0.724138 2:-0.663866 3:-0.332149 4:-0.781746 5:1 6:-0.783784 7:-0.58714 
1 0.79895917803107852 0.61650136913289189 0.73470344737297766 1:1 2:-0.411765 3:-0.715808 4:-1 5:0.428571 6:1 7:-0.79357 
-0.63668244247180394 1 0.73672486319943553 0.89170547674523459 1:-0.586207 2:-0.955182 3:-0.325044 4:0.968254 5:0.477204 6:-0.632432 7:0.529611 
-0 1 0 0.91390165404696588 1:0.103448 2:-0.473389 3:-0.829485 4:1 5:0.927052 6:0.0702703 7:0.712352 
-0.8048052765657594 1 1 1 1:-0.655172 2:-0.355742 3:-0.101243 4:0.694444 5:0.325228 6:-0.664865 7:0.945854 
-1 1 0.520902645216479 0.26985099467140433 1:0.793103 2:-1 3:-1 4:0.710317 5:0.513678 6:0.913514 7:0.692047 
-0 -1 1 1 1:0.103448 2:-0.00280112 3:0.634103 4:0.928571 5:0.75076 6:0.156757 7:0.77665 
-0.92434626942578935 -1 0.34567601910200108 1 1:0.448276 2:-0.0980392 3:0.250444 4:0.988095 5:0.920973 6:0.113514 7:0.979695 
-0.25079415939130623 -1 1 1 1:-0.862069 2:-0.563025 3:0.669627 4:0.825397 5:0.227964 6:-0.913514 7:0.671743 
-1 -1 0.5947921165670268 1 1:-0.931034 2:-0.77591 3:0.641208 4:0.555556 5:0.878419 6:-0.924324 7:0.658206 
-0 -0 -0 0.97041622505593228 1:-0.172414 2:1 3:0.886323 4:0.68254 5:-1 6:-0.459459 7:0.915398 
-1 -1 -1 1 1:-0.517241 2:0.579832 3:0.626998 4:0.396825 5:-0.568389 6:-0.232432 7:1 
-0.6216256196862755 -0.7492733251914484 -1 1 1:-0.517241 2:0.753501 3:1 4:0.587302 5:-0.525836 6:-0.935135 7:0.722504 
-0 -0.50835418322446624 -0.94046813566902787 1 1:-1 2:0.686275 3:0.982238 4:0.734127 5:-0.641337 6:-0.805405 7:0.92555 
-0 -0.075458125463604794 -1 -1 1:-0.310345 2:0.714286 3:0.754885 4:0.865079 5:0.191489 6:-0.502703 7:0.837563 
-0 -1 -1 -1 1:-0.172414 2:0.579832 3:0.754885 4:0.821429 5:0.647416 6:-0.243243 7:0.8511 
-1 -1 -1 -1 1:-1 2:0.383754 3:0.861456 4:0.670635 5:0.458967 6:-1 7:0.661591 
-0.93876316803304583 -1 -1 -0.97041622505593228 1:0.310345 2:0.697479 3:0.705151 4:0.757937 5:0.702128 6:-0.00540541 7:0.790186 
